digraph Tree {
node [shape=box] ;
0 [label="X[2] <= 2.45\ngini = 0.666\nsamples = 112\nvalue = [35, 39, 38]"] ;
1 [label="gini = 0.0\nsamples = 35\nvalue = [35, 0, 0]"] ;
0 -> 1 [labeldistance=2.5, labelangle=45, headlabel="True"] ;
2 [label="X[2] <= 4.75\ngini = 0.4999\nsamples = 77\nvalue = [0, 39, 38]"] ;
0 -> 2 [labeldistance=2.5, labelangle=-45, headlabel="False"] ;
3 [label="X[3] <= 1.65\ngini = 0.0555\nsamples = 35\nvalue = [0, 34, 1]"] ;
2 -> 3 ;
4 [label="gini = 0.0\nsamples = 34\nvalue = [0, 34, 0]"] ;
3 -> 4 ;
5 [label="gini = 0.0\nsamples = 1\nvalue = [0, 0, 1]"] ;
3 -> 5 ;
6 [label="X[3] <= 1.75\ngini = 0.2098\nsamples = 42\nvalue = [0, 5, 37]"] ;
2 -> 6 ;
7 [label="gini = 0.5\nsamples = 8\nvalue = [0, 4, 4]"] ;
6 -> 7 ;
8 [label="gini = 0.0571\nsamples = 34\nvalue = [0, 1, 33]"] ;
6 -> 8 ;
}